svm_type c_svc
kernel_type rbf
gamma 0.25
nr_class 2
total_sv 8
rho 0.161187
label 1 2
nr_sv 3 5
SV
25.13145191099052 1:0.76465116 2:0.386733 3:0.13 4:0.648 
8.175220696667548 1:0.68658915 2:1.0258706 3:0.394 4:0.812 
16.04489235927563 1:0.64232558 2:1.791874 3:0.703 4:0.842 
-1.516654588849387 1:0.42184332 2:1.4819237 3:0.793 4:1.242 
-2.022394021469751 1:0.42073733 2:1.7391376 3:1.011 4:0.882 
-6.251258638693937 1:0.45981567 2:0.25638474 3:0.14 4:0.772 
-23.25930955002578 1:0.45317972 2:0.41127695 3:0.24 4:0.64 
-16.30194816789482 1:0.41248848 2:1.5787728 3:0.89 4:0.866 
